digraph Tree {
node [shape=box] ;
0 [label="X[2] <= -0.2112\nmse = 0.0913\nsamples = 3701\nvalue = 0.3762"] ;
1 [label="X[1] <= -0.7345\nmse = 0.0937\nsamples = 1648\nvalue = 0.2717"] ;
0 -> 1 [labeldistance=2.5, labelangle=45, headlabel="True"] ;
2 [label="X[5] <= -1.0504\nmse = 0.0756\nsamples = 347\nvalue = 0.4161"] ;
1 -> 2 ;
3 [label="X[2] <= -0.3035\nmse = 0.0538\nsamples = 116\nvalue = 0.5276"] ;
2 -> 3 ;
4 [label="X[2] <= -1.1056\nmse = 0.055\nsamples = 76\nvalue = 0.4612"] ;
3 -> 4 ;
5 [label="mse = 0.0439\nsamples = 38\nvalue = 0.571"] ;
4 -> 5 ;
6 [label="mse = 0.042\nsamples = 38\nvalue = 0.3515"] ;
4 -> 6 ;
7 [label="X[0] <= 1.0231\nmse = 0.0272\nsamples = 40\nvalue = 0.6537"] ;
3 -> 7 ;
8 [label="mse = 0.0242\nsamples = 20\nvalue = 0.6182"] ;
7 -> 8 ;
9 [label="mse = 0.0277\nsamples = 20\nvalue = 0.6892"] ;
7 -> 9 ;
10 [label="X[4] <= 0.6841\nmse = 0.0772\nsamples = 231\nvalue = 0.3602"] ;
2 -> 10 ;
11 [label="X[3] <= -0.363\nmse = 0.0636\nsamples = 163\nvalue = 0.4247"] ;
10 -> 11 ;
12 [label="X[4] <= 0.2307\nmse = 0.0283\nsamples = 49\nvalue = 0.2153"] ;
11 -> 12 ;
13 [label="mse = 0.0357\nsamples = 21\nvalue = 0.2603"] ;
12 -> 13 ;
14 [label="mse = 0.0201\nsamples = 28\nvalue = 0.1816"] ;
12 -> 14 ;
15 [label="X[5] <= -0.5682\nmse = 0.0518\nsamples = 114\nvalue = 0.5146"] ;
11 -> 15 ;
16 [label="X[4] <= -0.4411\nmse = 0.0785\nsamples = 40\nvalue = 0.4201"] ;
15 -> 16 ;
17 [label="mse = 0.1091\nsamples = 20\nvalue = 0.3251"] ;
16 -> 17 ;
18 [label="mse = 0.0299\nsamples = 20\nvalue = 0.5152"] ;
16 -> 18 ;
19 [label="X[3] <= -0.2066\nmse = 0.0299\nsamples = 74\nvalue = 0.5657"] ;
15 -> 19 ;
20 [label="mse = 0.0362\nsamples = 20\nvalue = 0.4942"] ;
19 -> 20 ;
21 [label="X[2] <= -0.327\nmse = 0.025\nsamples = 54\nvalue = 0.5922"] ;
19 -> 21 ;
22 [label="mse = 0.0324\nsamples = 31\nvalue = 0.5719"] ;
21 -> 22 ;
23 [label="mse = 0.0137\nsamples = 23\nvalue = 0.6195"] ;
21 -> 23 ;
24 [label="X[2] <= -0.4224\nmse = 0.0759\nsamples = 68\nvalue = 0.2056"] ;
10 -> 24 ;
25 [label="mse = 0.0467\nsamples = 36\nvalue = 0.2883"] ;
24 -> 25 ;
26 [label="mse = 0.0924\nsamples = 32\nvalue = 0.1125"] ;
24 -> 26 ;
27 [label="X[4] <= 0.1645\nmse = 0.0914\nsamples = 1301\nvalue = 0.2332"] ;
1 -> 27 ;
28 [label="X[4] <= -0.064\nmse = 0.0733\nsamples = 416\nvalue = 0.3463"] ;
27 -> 28 ;
29 [label="X[1] <= -0.3285\nmse = 0.0573\nsamples = 210\nvalue = 0.406"] ;
28 -> 29 ;
30 [label="mse = 0.0581\nsamples = 28\nvalue = 0.5646"] ;
29 -> 30 ;
31 [label="X[1] <= 1.2174\nmse = 0.0528\nsamples = 182\nvalue = 0.3816"] ;
29 -> 31 ;
32 [label="X[3] <= -0.479\nmse = 0.0517\nsamples = 133\nvalue = 0.3521"] ;
31 -> 32 ;
33 [label="X[4] <= -0.3705\nmse = 0.0465\nsamples = 98\nvalue = 0.3248"] ;
32 -> 33 ;
34 [label="X[1] <= 0.78\nmse = 0.0386\nsamples = 65\nvalue = 0.362"] ;
33 -> 34 ;
35 [label="X[3] <= -0.6455\nmse = 0.0269\nsamples = 44\nvalue = 0.3828"] ;
34 -> 35 ;
36 [label="mse = 0.0301\nsamples = 21\nvalue = 0.3653"] ;
35 -> 36 ;
37 [label="mse = 0.0234\nsamples = 23\nvalue = 0.3989"] ;
35 -> 37 ;
38 [label="mse = 0.0602\nsamples = 21\nvalue = 0.3184"] ;
34 -> 38 ;
39 [label="mse = 0.054\nsamples = 33\nvalue = 0.2514"] ;
33 -> 39 ;
40 [label="mse = 0.0582\nsamples = 35\nvalue = 0.4287"] ;
32 -> 40 ;
41 [label="X[4] <= -0.6479\nmse = 0.047\nsamples = 49\nvalue = 0.4616"] ;
31 -> 41 ;
42 [label="mse = 0.0404\nsamples = 28\nvalue = 0.3882"] ;
41 -> 42 ;
43 [label="mse = 0.0389\nsamples = 21\nvalue = 0.5595"] ;
41 -> 43 ;
44 [label="X[1] <= 0.1689\nmse = 0.0823\nsamples = 206\nvalue = 0.2854"] ;
28 -> 44 ;
45 [label="X[3] <= -0.4635\nmse = 0.0812\nsamples = 67\nvalue = 0.1673"] ;
44 -> 45 ;
46 [label="mse = 0.0523\nsamples = 38\nvalue = 0.0626"] ;
45 -> 46 ;
47 [label="mse = 0.0858\nsamples = 29\nvalue = 0.3044"] ;
45 -> 47 ;
48 [label="X[3] <= -0.5355\nmse = 0.0729\nsamples = 139\nvalue = 0.3423"] ;
44 -> 48 ;
49 [label="X[3] <= -0.7281\nmse = 0.0878\nsamples = 89\nvalue = 0.2882"] ;
48 -> 49 ;
50 [label="mse = 0.1177\nsamples = 23\nvalue = 0.4945"] ;
49 -> 50 ;
51 [label="X[0] <= -0.7003\nmse = 0.0574\nsamples = 66\nvalue = 0.2164"] ;
49 -> 51 ;
52 [label="mse = 0.0696\nsamples = 35\nvalue = 0.1512"] ;
51 -> 52 ;
53 [label="mse = 0.0335\nsamples = 31\nvalue = 0.2899"] ;
51 -> 53 ;
54 [label="X[2] <= -0.4661\nmse = 0.0318\nsamples = 50\nvalue = 0.4384"] ;
48 -> 54 ;
55 [label="mse = 0.0387\nsamples = 21\nvalue = 0.3899"] ;
54 -> 55 ;
56 [label="mse = 0.0238\nsamples = 29\nvalue = 0.4736"] ;
54 -> 56 ;
57 [label="X[1] <= 0.6553\nmse = 0.0911\nsamples = 885\nvalue = 0.18"] ;
27 -> 57 ;
58 [label="X[2] <= -0.3831\nmse = 0.0769\nsamples = 723\nvalue = 0.1398"] ;
57 -> 58 ;
59 [label="X[2] <= -0.5489\nmse = 0.0632\nsamples = 511\nvalue = 0.1754"] ;
58 -> 59 ;
60 [label="X[5] <= -0.528\nmse = 0.0651\nsamples = 327\nvalue = 0.1247"] ;
59 -> 60 ;
61 [label="X[1] <= -0.1414\nmse = 0.0299\nsamples = 60\nvalue = 0.1929"] ;
60 -> 61 ;
62 [label="mse = 0.0218\nsamples = 32\nvalue = 0.2535"] ;
61 -> 62 ;
63 [label="mse = 0.0303\nsamples = 28\nvalue = 0.1236"] ;
61 -> 63 ;
64 [label="X[5] <= -0.1664\nmse = 0.0717\nsamples = 267\nvalue = 0.1094"] ;
60 -> 64 ;
65 [label="X[1] <= -0.071\nmse = 0.0467\nsamples = 104\nvalue = 0.0604"] ;
64 -> 65 ;
66 [label="X[2] <= -0.6207\nmse = 0.0453\nsamples = 50\nvalue = 0.0208"] ;
65 -> 66 ;
67 [label="mse = 0.0585\nsamples = 28\nvalue = 0.073"] ;
66 -> 67 ;
68 [label="mse = 0.0206\nsamples = 22\nvalue = -0.0455"] ;
66 -> 68 ;
69 [label="X[1] <= 0.0325\nmse = 0.0453\nsamples = 54\nvalue = 0.0971"] ;
65 -> 69 ;
70 [label="mse = 0.0413\nsamples = 24\nvalue = 0.199"] ;
69 -> 70 ;
71 [label="mse = 0.0335\nsamples = 30\nvalue = 0.0156"] ;
69 -> 71 ;
72 [label="X[3] <= -0.5138\nmse = 0.0852\nsamples = 163\nvalue = 0.1406"] ;
64 -> 72 ;
73 [label="X[3] <= -0.5894\nmse = 0.0969\nsamples = 49\nvalue = 0.2069"] ;
72 -> 73 ;
74 [label="mse = 0.0957\nsamples = 25\nvalue = 0.1038"] ;
73 -> 74 ;
75 [label="mse = 0.0757\nsamples = 24\nvalue = 0.3143"] ;
73 -> 75 ;
76 [label="X[1] <= -0.1449\nmse = 0.0774\nsamples = 114\nvalue = 0.1121"] ;
72 -> 76 ;
77 [label="X[5] <= -0.0056\nmse = 0.0966\nsamples = 41\nvalue = 0.0149"] ;
76 -> 77 ;
78 [label="mse = 0.0645\nsamples = 20\nvalue = 0.087"] ;
77 -> 78 ;
79 [label="mse = 0.1174\nsamples = 21\nvalue = -0.0538"] ;
77 -> 79 ;
80 [label="X[2] <= -0.6171\nmse = 0.0584\nsamples = 73\nvalue = 0.1666"] ;
76 -> 80 ;
81 [label="X[5] <= 0.0346\nmse = 0.0587\nsamples = 46\nvalue = 0.1173"] ;
80 -> 81 ;
82 [label="mse = 0.0531\nsamples = 25\nvalue = 0.0358"] ;
81 -> 82 ;
83 [label="mse = 0.0481\nsamples = 21\nvalue = 0.2144"] ;
81 -> 83 ;
84 [label="mse = 0.0466\nsamples = 27\nvalue = 0.2506"] ;
80 -> 84 ;
85 [label="X[2] <= -0.4814\nmse = 0.0472\nsamples = 184\nvalue = 0.2655"] ;
59 -> 85 ;
86 [label="X[3] <= -0.5128\nmse = 0.0552\nsamples = 77\nvalue = 0.3292"] ;
85 -> 86 ;
87 [label="mse = 0.0475\nsamples = 20\nvalue = 0.5274"] ;
86 -> 87 ;
88 [label="X[5] <= -0.1664\nmse = 0.0392\nsamples = 57\nvalue = 0.2597"] ;
86 -> 88 ;
89 [label="mse = 0.0292\nsamples = 32\nvalue = 0.3375"] ;
88 -> 89 ;
90 [label="mse = 0.0345\nsamples = 25\nvalue = 0.1601"] ;
88 -> 90 ;
91 [label="X[0] <= -0.154\nmse = 0.0365\nsamples = 107\nvalue = 0.2196"] ;
85 -> 91 ;
92 [label="X[1] <= -0.3352\nmse = 0.0359\nsamples = 82\nvalue = 0.1833"] ;
91 -> 92 ;
93 [label="mse = 0.0261\nsamples = 26\nvalue = 0.2973"] ;
92 -> 93 ;
94 [label="X[4] <= 0.6013\nmse = 0.0317\nsamples = 56\nvalue = 0.1304"] ;
92 -> 94 ;
95 [label="mse = 0.0355\nsamples = 25\nvalue = 0.0654"] ;
94 -> 95 ;
96 [label="mse = 0.0224\nsamples = 31\nvalue = 0.1829"] ;
94 -> 96 ;
97 [label="mse = 0.0199\nsamples = 25\nvalue = 0.3386"] ;
91 -> 97 ;
98 [label="X[1] <= -0.4456\nmse = 0.0994\nsamples = 212\nvalue = 0.0542"] ;
58 -> 98 ;
99 [label="X[2] <= -0.2953\nmse = 0.098\nsamples = 41\nvalue = 0.2751"] ;
98 -> 99 ;
100 [label="mse = 0.1023\nsamples = 20\nvalue = 0.1637"] ;
99 -> 100 ;
101 [label="mse = 0.071\nsamples = 21\nvalue = 0.3811"] ;
99 -> 101 ;
102 [label="X[0] <= -0.1238\nmse = 0.0853\nsamples = 171\nvalue = 0.0013"] ;
98 -> 102 ;
103 [label="X[3] <= -0.2335\nmse = 0.0638\nsamples = 97\nvalue = -0.0735"] ;
102 -> 103 ;
104 [label="X[1] <= -0.1229\nmse = 0.0513\nsamples = 55\nvalue = -0.0055"] ;
103 -> 104 ;
105 [label="mse = 0.0281\nsamples = 20\nvalue = -0.0823"] ;
104 -> 105 ;
106 [label="mse = 0.0592\nsamples = 35\nvalue = 0.0384"] ;
104 -> 106 ;
107 [label="X[0] <= -0.3906\nmse = 0.0661\nsamples = 42\nvalue = -0.1624"] ;
103 -> 107 ;
108 [label="mse = 0.0663\nsamples = 21\nvalue = -0.1014"] ;
107 -> 108 ;
109 [label="mse = 0.0585\nsamples = 21\nvalue = -0.2235"] ;
107 -> 109 ;
110 [label="X[4] <= 2.1465\nmse = 0.0966\nsamples = 74\nvalue = 0.0992"] ;
102 -> 110 ;
111 [label="mse = 0.1118\nsamples = 33\nvalue = 0.2252"] ;
110 -> 111 ;
112 [label="X[1] <= 0.1505\nmse = 0.0613\nsamples = 41\nvalue = -0.0023"] ;
110 -> 112 ;
113 [label="mse = 0.079\nsamples = 21\nvalue = 0.0458"] ;
112 -> 113 ;
114 [label="mse = 0.0377\nsamples = 20\nvalue = -0.0527"] ;
112 -> 114 ;
115 [label="X[3] <= -0.2532\nmse = 0.1151\nsamples = 162\nvalue = 0.3592"] ;
57 -> 115 ;
116 [label="X[4] <= 1.4941\nmse = 0.0981\nsamples = 137\nvalue = 0.4271"] ;
115 -> 116 ;
117 [label="X[4] <= 0.7421\nmse = 0.0622\nsamples = 117\nvalue = 0.4918"] ;
116 -> 117 ;
118 [label="X[2] <= -0.4545\nmse = 0.0657\nsamples = 87\nvalue = 0.4414"] ;
117 -> 118 ;
119 [label="X[4] <= 0.3121\nmse = 0.0605\nsamples = 52\nvalue = 0.347"] ;
118 -> 119 ;
120 [label="mse = 0.06\nsamples = 26\nvalue = 0.4045"] ;
119 -> 120 ;
121 [label="mse = 0.0543\nsamples = 26\nvalue = 0.2894"] ;
119 -> 121 ;
122 [label="mse = 0.0406\nsamples = 35\nvalue = 0.5816"] ;
118 -> 122 ;
123 [label="mse = 0.023\nsamples = 30\nvalue = 0.6383"] ;
117 -> 123 ;
124 [label="mse = 0.14\nsamples = 20\nvalue = 0.0481"] ;
116 -> 124 ;
125 [label="mse = 0.0449\nsamples = 25\nvalue = -0.013"] ;
115 -> 125 ;
126 [label="X[1] <= -0.5561\nmse = 0.0735\nsamples = 2053\nvalue = 0.4602"] ;
0 -> 126 [labeldistance=2.5, labelangle=-45, headlabel="False"] ;
127 [label="X[0] <= -0.1604\nmse = 0.0586\nsamples = 877\nvalue = 0.5291"] ;
126 -> 127 ;
128 [label="X[4] <= 0.965\nmse = 0.0589\nsamples = 247\nvalue = 0.4458"] ;
127 -> 128 ;
129 [label="X[2] <= 0.3444\nmse = 0.0456\nsamples = 226\nvalue = 0.4716"] ;
128 -> 129 ;
130 [label="X[3] <= -0.3006\nmse = 0.036\nsamples = 100\nvalue = 0.5239"] ;
129 -> 130 ;
131 [label="mse = 0.0163\nsamples = 39\nvalue = 0.4255"] ;
130 -> 131 ;
132 [label="X[4] <= 0.31\nmse = 0.0384\nsamples = 61\nvalue = 0.5869"] ;
130 -> 132 ;
133 [label="X[4] <= 0.0335\nmse = 0.0166\nsamples = 40\nvalue = 0.6445"] ;
132 -> 133 ;
134 [label="mse = 0.0148\nsamples = 20\nvalue = 0.6592"] ;
133 -> 134 ;
135 [label="mse = 0.0179\nsamples = 20\nvalue = 0.6298"] ;
133 -> 135 ;
136 [label="mse = 0.0617\nsamples = 21\nvalue = 0.4772"] ;
132 -> 136 ;
137 [label="X[5] <= -0.8093\nmse = 0.0493\nsamples = 126\nvalue = 0.4301"] ;
129 -> 137 ;
138 [label="X[3] <= 0.006\nmse = 0.0239\nsamples = 43\nvalue = 0.5259"] ;
137 -> 138 ;
139 [label="mse = 0.0229\nsamples = 21\nvalue = 0.5693"] ;
138 -> 139 ;
140 [label="mse = 0.0213\nsamples = 22\nvalue = 0.4845"] ;
138 -> 140 ;
141 [label="X[5] <= -0.5079\nmse = 0.0553\nsamples = 83\nvalue = 0.3804"] ;
137 -> 141 ;
142 [label="mse = 0.0581\nsamples = 23\nvalue = 0.3001"] ;
141 -> 142 ;
143 [label="X[1] <= -1.0338\nmse = 0.0508\nsamples = 60\nvalue = 0.4112"] ;
141 -> 143 ;
144 [label="mse = 0.0604\nsamples = 26\nvalue = 0.4948"] ;
143 -> 144 ;
145 [label="mse = 0.0341\nsamples = 34\nvalue = 0.3473"] ;
143 -> 145 ;
146 [label="mse = 0.1173\nsamples = 21\nvalue = 0.1682"] ;
128 -> 146 ;
147 [label="X[3] <= 1.0323\nmse = 0.0547\nsamples = 630\nvalue = 0.5618"] ;
127 -> 147 ;
148 [label="X[2] <= 1.0377\nmse = 0.0629\nsamples = 378\nvalue = 0.5037"] ;
147 -> 148 ;
149 [label="X[5] <= -1.171\nmse = 0.0472\nsamples = 337\nvalue = 0.532"] ;
148 -> 149 ;
150 [label="X[1] <= -1.346\nmse = 0.0702\nsamples = 45\nvalue = 0.4368"] ;
149 -> 150 ;
151 [label="mse = 0.0887\nsamples = 21\nvalue = 0.3515"] ;
150 -> 151 ;
152 [label="mse = 0.042\nsamples = 24\nvalue = 0.5114"] ;
150 -> 152 ;
153 [label="X[1] <= -1.3377\nmse = 0.0421\nsamples = 292\nvalue = 0.5467"] ;
149 -> 153 ;
154 [label="X[2] <= 0.8064\nmse = 0.0651\nsamples = 43\nvalue = 0.4597"] ;
153 -> 154 ;
155 [label="mse = 0.0696\nsamples = 21\nvalue = 0.5744"] ;
154 -> 155 ;
156 [label="mse = 0.0363\nsamples = 22\nvalue = 0.3502"] ;
154 -> 156 ;
157 [label="X[2] <= 0.8789\nmse = 0.0366\nsamples = 249\nvalue = 0.5617"] ;
153 -> 157 ;
158 [label="X[0] <= 0.0469\nmse = 0.0328\nsamples = 168\nvalue = 0.5849"] ;
157 -> 158 ;
159 [label="X[2] <= 0.7482\nmse = 0.0366\nsamples = 108\nvalue = 0.5487"] ;
158 -> 159 ;
160 [label="X[0] <= -0.0452\nmse = 0.0396\nsamples = 83\nvalue = 0.5224"] ;
159 -> 160 ;
161 [label="X[5] <= -0.2066\nmse = 0.0281\nsamples = 63\nvalue = 0.5508"] ;
160 -> 161 ;
162 [label="X[4] <= -0.1432\nmse = 0.0229\nsamples = 42\nvalue = 0.5808"] ;
161 -> 162 ;
163 [label="mse = 0.0233\nsamples = 22\nvalue = 0.5242"] ;
162 -> 163 ;
164 [label="mse = 0.0149\nsamples = 20\nvalue = 0.6431"] ;
162 -> 164 ;
165 [label="mse = 0.0333\nsamples = 21\nvalue = 0.4909"] ;
161 -> 165 ;
166 [label="mse = 0.0651\nsamples = 20\nvalue = 0.4327"] ;
160 -> 166 ;
167 [label="mse = 0.0166\nsamples = 25\nvalue = 0.6363"] ;
159 -> 167 ;
168 [label="X[1] <= -0.9561\nmse = 0.0195\nsamples = 60\nvalue = 0.6498"] ;
158 -> 168 ;
169 [label="mse = 0.0143\nsamples = 38\nvalue = 0.6862"] ;
168 -> 169 ;
170 [label="mse = 0.0223\nsamples = 22\nvalue = 0.5871"] ;
168 -> 170 ;
171 [label="X[3] <= -0.1433\nmse = 0.041\nsamples = 81\nvalue = 0.5138"] ;
157 -> 171 ;
172 [label="X[5] <= -0.3673\nmse = 0.0275\nsamples = 61\nvalue = 0.542"] ;
171 -> 172 ;
173 [label="X[1] <= -1.1253\nmse = 0.0291\nsamples = 40\nvalue = 0.5914"] ;
172 -> 173 ;
174 [label="mse = 0.0306\nsamples = 20\nvalue = 0.5434"] ;
173 -> 174 ;
175 [label="mse = 0.0229\nsamples = 20\nvalue = 0.6395"] ;
173 -> 175 ;
176 [label="mse = 0.0109\nsamples = 21\nvalue = 0.448"] ;
172 -> 176 ;
177 [label="mse = 0.0724\nsamples = 20\nvalue = 0.4278"] ;
171 -> 177 ;
178 [label="X[3] <= -0.2743\nmse = 0.1309\nsamples = 41\nvalue = 0.2712"] ;
148 -> 178 ;
179 [label="mse = 0.0794\nsamples = 21\nvalue = 0.3304"] ;
178 -> 179 ;
180 [label="mse = 0.1775\nsamples = 20\nvalue = 0.209"] ;
178 -> 180 ;
181 [label="X[0] <= 2.5401\nmse = 0.0297\nsamples = 252\nvalue = 0.6488"] ;
147 -> 181 ;
182 [label="X[2] <= 1.0424\nmse = 0.0272\nsamples = 217\nvalue = 0.631"] ;
181 -> 182 ;
183 [label="X[2] <= 0.0952\nmse = 0.0268\nsamples = 188\nvalue = 0.6443"] ;
182 -> 183 ;
184 [label="X[2] <= -0.1717\nmse = 0.0345\nsamples = 89\nvalue = 0.6068"] ;
183 -> 184 ;
185 [label="mse = 0.0124\nsamples = 22\nvalue = 0.6877"] ;
184 -> 185 ;
186 [label="X[5] <= -1.3317\nmse = 0.039\nsamples = 67\nvalue = 0.5803"] ;
184 -> 186 ;
187 [label="mse = 0.046\nsamples = 31\nvalue = 0.5007"] ;
186 -> 187 ;
188 [label="mse = 0.0228\nsamples = 36\nvalue = 0.6488"] ;
186 -> 188 ;
189 [label="X[2] <= 0.3954\nmse = 0.0174\nsamples = 99\nvalue = 0.678"] ;
183 -> 189 ;
190 [label="mse = 0.0072\nsamples = 28\nvalue = 0.7636"] ;
189 -> 190 ;
191 [label="X[2] <= 0.3972\nmse = 0.0174\nsamples = 71\nvalue = 0.6442"] ;
189 -> 191 ;
192 [label="mse = 0.014\nsamples = 20\nvalue = 0.5992"] ;
191 -> 192 ;
193 [label="X[3] <= 2.5158\nmse = 0.0176\nsamples = 51\nvalue = 0.6618"] ;
191 -> 193 ;
194 [label="mse = 0.0085\nsamples = 22\nvalue = 0.5936"] ;
193 -> 194 ;
195 [label="mse = 0.0184\nsamples = 29\nvalue = 0.7136"] ;
193 -> 195 ;
196 [label="mse = 0.0215\nsamples = 29\nvalue = 0.5452"] ;
182 -> 196 ;
197 [label="mse = 0.031\nsamples = 35\nvalue = 0.7592"] ;
181 -> 197 ;
198 [label="X[5] <= 2.4457\nmse = 0.0785\nsamples = 1176\nvalue = 0.4087"] ;
126 -> 198 ;
199 [label="X[3] <= 1.7136\nmse = 0.0757\nsamples = 1113\nvalue = 0.4235"] ;
198 -> 199 ;
200 [label="X[2] <= 2.3166\nmse = 0.0744\nsamples = 1078\nvalue = 0.4136"] ;
199 -> 200 ;
201 [label="X[0] <= -0.9104\nmse = 0.0755\nsamples = 965\nvalue = 0.3961"] ;
200 -> 201 ;
202 [label="mse = 0.0388\nsamples = 21\nvalue = 0.005"] ;
201 -> 202 ;
203 [label="X[1] <= 1.909\nmse = 0.0729\nsamples = 944\nvalue = 0.4048"] ;
201 -> 203 ;
204 [label="X[1] <= 0.917\nmse = 0.0692\nsamples = 856\nvalue = 0.4204"] ;
203 -> 204 ;
205 [label="X[3] <= -0.5364\nmse = 0.0644\nsamples = 447\nvalue = 0.3765"] ;
204 -> 205 ;
206 [label="X[5] <= 0.356\nmse = 0.0529\nsamples = 239\nvalue = 0.3353"] ;
205 -> 206 ;
207 [label="X[2] <= -0.0812\nmse = 0.0622\nsamples = 77\nvalue = 0.2394"] ;
206 -> 207 ;
208 [label="mse = 0.052\nsamples = 23\nvalue = 0.3763"] ;
207 -> 208 ;
209 [label="X[3] <= -0.5861\nmse = 0.0552\nsamples = 54\nvalue = 0.1811"] ;
207 -> 209 ;
210 [label="mse = 0.0376\nsamples = 34\nvalue = 0.1074"] ;
209 -> 210 ;
211 [label="mse = 0.0602\nsamples = 20\nvalue = 0.3064"] ;
209 -> 211 ;
212 [label="X[2] <= -0.0484\nmse = 0.042\nsamples = 162\nvalue = 0.3809"] ;
206 -> 212 ;
213 [label="mse = 0.032\nsamples = 20\nvalue = 0.2409"] ;
212 -> 213 ;
214 [label="X[1] <= 0.792\nmse = 0.0403\nsamples = 142\nvalue = 0.4006"] ;
212 -> 214 ;
215 [label="X[0] <= 0.6421\nmse = 0.0358\nsamples = 120\nvalue = 0.3787"] ;
214 -> 215 ;
216 [label="X[3] <= -0.6989\nmse = 0.0295\nsamples = 91\nvalue = 0.4188"] ;
215 -> 216 ;
217 [label="X[3] <= -0.7695\nmse = 0.0329\nsamples = 55\nvalue = 0.397"] ;
216 -> 217 ;
218 [label="mse = 0.0244\nsamples = 22\nvalue = 0.4603"] ;
217 -> 218 ;
219 [label="mse = 0.0342\nsamples = 33\nvalue = 0.3548"] ;
217 -> 219 ;
220 [label="mse = 0.0225\nsamples = 36\nvalue = 0.4522"] ;
216 -> 220 ;
221 [label="mse = 0.0344\nsamples = 29\nvalue = 0.2526"] ;
215 -> 221 ;
222 [label="mse = 0.0479\nsamples = 22\nvalue = 0.5201"] ;
214 -> 222 ;
223 [label="X[0] <= -0.1383\nmse = 0.0734\nsamples = 208\nvalue = 0.4238"] ;
205 -> 223 ;
224 [label="X[2] <= 0.4636\nmse = 0.0696\nsamples = 81\nvalue = 0.3288"] ;
223 -> 224 ;
225 [label="mse = 0.0392\nsamples = 24\nvalue = 0.2266"] ;
224 -> 225 ;
226 [label="X[2] <= 0.7068\nmse = 0.0761\nsamples = 57\nvalue = 0.3719"] ;
224 -> 226 ;
227 [label="mse = 0.0604\nsamples = 20\nvalue = 0.5106"] ;
226 -> 227 ;
228 [label="mse = 0.0686\nsamples = 37\nvalue = 0.2969"] ;
226 -> 228 ;
229 [label="X[0] <= 0.285\nmse = 0.0664\nsamples = 127\nvalue = 0.4843"] ;
223 -> 229 ;
230 [label="X[0] <= 0.0819\nmse = 0.0609\nsamples = 53\nvalue = 0.5675"] ;
229 -> 230 ;
231 [label="mse = 0.0854\nsamples = 30\nvalue = 0.5068"] ;
230 -> 231 ;
232 [label="mse = 0.0179\nsamples = 23\nvalue = 0.6465"] ;
230 -> 232 ;
233 [label="X[3] <= 0.8763\nmse = 0.0618\nsamples = 74\nvalue = 0.4248"] ;
229 -> 233 ;
234 [label="X[1] <= 0.2503\nmse = 0.0459\nsamples = 49\nvalue = 0.3482"] ;
233 -> 234 ;
235 [label="mse = 0.0307\nsamples = 27\nvalue = 0.2808"] ;
234 -> 235 ;
236 [label="mse = 0.052\nsamples = 22\nvalue = 0.431"] ;
234 -> 236 ;
237 [label="mse = 0.0589\nsamples = 25\nvalue = 0.5749"] ;
233 -> 237 ;
238 [label="X[5] <= 0.1551\nmse = 0.0701\nsamples = 409\nvalue = 0.4684"] ;
204 -> 238 ;
239 [label="mse = 0.1282\nsamples = 29\nvalue = 0.279"] ;
238 -> 239 ;
240 [label="X[2] <= 0.2582\nmse = 0.0627\nsamples = 380\nvalue = 0.4829"] ;
238 -> 240 ;
241 [label="X[0] <= 0.3945\nmse = 0.0516\nsamples = 172\nvalue = 0.5338"] ;
240 -> 241 ;
242 [label="X[3] <= -0.7732\nmse = 0.0409\nsamples = 152\nvalue = 0.5625"] ;
241 -> 242 ;
243 [label="mse = 0.0419\nsamples = 27\nvalue = 0.4378"] ;
242 -> 243 ;
244 [label="X[3] <= -0.7145\nmse = 0.0366\nsamples = 125\nvalue = 0.5894"] ;
242 -> 244 ;
245 [label="X[4] <= -0.1272\nmse = 0.0237\nsamples = 67\nvalue = 0.6423"] ;
244 -> 245 ;
246 [label="mse = 0.0218\nsamples = 21\nvalue = 0.5727"] ;
245 -> 246 ;
247 [label="X[2] <= 0.1303\nmse = 0.0213\nsamples = 46\nvalue = 0.6741"] ;
245 -> 247 ;
248 [label="mse = 0.0204\nsamples = 20\nvalue = 0.5978"] ;
247 -> 248 ;
249 [label="mse = 0.014\nsamples = 26\nvalue = 0.7328"] ;
247 -> 249 ;
250 [label="X[1] <= 1.2587\nmse = 0.0446\nsamples = 58\nvalue = 0.5284"] ;
244 -> 250 ;
251 [label="mse = 0.0517\nsamples = 31\nvalue = 0.4561"] ;
250 -> 251 ;
252 [label="mse = 0.0235\nsamples = 27\nvalue = 0.6114"] ;
250 -> 252 ;
253 [label="mse = 0.0788\nsamples = 20\nvalue = 0.3153"] ;
241 -> 253 ;
254 [label="X[2] <= 0.8245\nmse = 0.068\nsamples = 208\nvalue = 0.4408"] ;
240 -> 254 ;
255 [label="X[5] <= 0.7579\nmse = 0.076\nsamples = 134\nvalue = 0.3889"] ;
254 -> 255 ;
256 [label="X[0] <= 0.0068\nmse = 0.106\nsamples = 43\nvalue = 0.2496"] ;
255 -> 256 ;
257 [label="mse = 0.0722\nsamples = 20\nvalue = 0.4122"] ;
256 -> 257 ;
258 [label="mse = 0.0925\nsamples = 23\nvalue = 0.1081"] ;
256 -> 258 ;
259 [label="X[3] <= -0.7918\nmse = 0.0483\nsamples = 91\nvalue = 0.4547"] ;
255 -> 259 ;
260 [label="mse = 0.0623\nsamples = 20\nvalue = 0.3242"] ;
259 -> 260 ;
261 [label="X[1] <= 1.5378\nmse = 0.0383\nsamples = 71\nvalue = 0.4915"] ;
259 -> 261 ;
262 [label="X[2] <= 0.4736\nmse = 0.0319\nsamples = 47\nvalue = 0.5244"] ;
261 -> 262 ;
263 [label="mse = 0.0358\nsamples = 23\nvalue = 0.5987"] ;
262 -> 263 ;
264 [label="mse = 0.0177\nsamples = 24\nvalue = 0.4532"] ;
262 -> 264 ;
265 [label="mse = 0.0445\nsamples = 24\nvalue = 0.4271"] ;
261 -> 265 ;
266 [label="X[0] <= 0.1348\nmse = 0.0396\nsamples = 74\nvalue = 0.5348"] ;
254 -> 266 ;
267 [label="mse = 0.0483\nsamples = 32\nvalue = 0.4648"] ;
266 -> 267 ;
268 [label="X[3] <= -0.7881\nmse = 0.0264\nsamples = 42\nvalue = 0.5882"] ;
266 -> 268 ;
269 [label="mse = 0.0245\nsamples = 21\nvalue = 0.6249"] ;
268 -> 269 ;
270 [label="mse = 0.0256\nsamples = 21\nvalue = 0.5514"] ;
268 -> 270 ;
271 [label="X[2] <= 0.6412\nmse = 0.0829\nsamples = 88\nvalue = 0.2526"] ;
203 -> 271 ;
272 [label="X[0] <= 0.8552\nmse = 0.0872\nsamples = 46\nvalue = 0.1519"] ;
271 -> 272 ;
273 [label="mse = 0.0705\nsamples = 26\nvalue = 0.0843"] ;
272 -> 273 ;
274 [label="mse = 0.0952\nsamples = 20\nvalue = 0.2397"] ;
272 -> 274 ;
275 [label="X[0] <= -0.631\nmse = 0.055\nsamples = 42\nvalue = 0.3629"] ;
271 -> 275 ;
276 [label="mse = 0.0474\nsamples = 21\nvalue = 0.4261"] ;
275 -> 276 ;
277 [label="mse = 0.0546\nsamples = 21\nvalue = 0.2996"] ;
275 -> 277 ;
278 [label="X[1] <= 0.3889\nmse = 0.0397\nsamples = 113\nvalue = 0.5632"] ;
200 -> 278 ;
279 [label="mse = 0.0562\nsamples = 29\nvalue = 0.4344"] ;
278 -> 279 ;
280 [label="X[0] <= -0.5394\nmse = 0.0263\nsamples = 84\nvalue = 0.6076"] ;
278 -> 280 ;
281 [label="mse = 0.027\nsamples = 28\nvalue = 0.5301"] ;
280 -> 281 ;
282 [label="X[4] <= -1.3704\nmse = 0.0214\nsamples = 56\nvalue = 0.6464"] ;
280 -> 282 ;
283 [label="mse = 0.0121\nsamples = 32\nvalue = 0.6782"] ;
282 -> 283 ;
284 [label="mse = 0.0306\nsamples = 24\nvalue = 0.6039"] ;
282 -> 284 ;
285 [label="mse = 0.0186\nsamples = 35\nvalue = 0.7288"] ;
199 -> 285 ;
286 [label="X[0] <= 0.005\nmse = 0.0564\nsamples = 63\nvalue = 0.148"] ;
198 -> 286 ;
287 [label="X[1] <= 1.0759\nmse = 0.0599\nsamples = 43\nvalue = 0.0979"] ;
286 -> 287 ;
288 [label="mse = 0.0399\nsamples = 23\nvalue = -0.0203"] ;
287 -> 288 ;
289 [label="mse = 0.0483\nsamples = 20\nvalue = 0.2337"] ;
287 -> 289 ;
290 [label="mse = 0.0319\nsamples = 20\nvalue = 0.2558"] ;
286 -> 290 ;
}